digraph Tree {
node [shape=box] ;
0 [label="X[52] <= 0.5\nentropy = 1.0\nsamples = 3303\nvalue = [1626, 1677]"] ;
1 [label="X[1] <= 0.5\nentropy = 0.981\nsamples = 2362\nvalue = [1374, 988]"] ;
0 -> 1 [labeldistance=2.5, labelangle=45, headlabel="True"] ;
2 [label="X[85] <= 0.5\nentropy = 0.995\nsamples = 2068\nvalue = [1122, 946]"] ;
1 -> 2 ;
3 [label="entropy = 1.0\nsamples = 1772\nvalue = [905, 867]"] ;
2 -> 3 ;
4 [label="entropy = 0.837\nsamples = 296\nvalue = [217, 79]"] ;
2 -> 4 ;
5 [label="X[25] <= 0.5\nentropy = 0.592\nsamples = 294\nvalue = [252, 42]"] ;
1 -> 5 ;
6 [label="entropy = 0.568\nsamples = 291\nvalue = [252, 39]"] ;
5 -> 6 ;
7 [label="entropy = 0.0\nsamples = 3\nvalue = [0, 3]"] ;
5 -> 7 ;
8 [label="X[85] <= 0.5\nentropy = 0.838\nsamples = 941\nvalue = [252, 689]"] ;
0 -> 8 [labeldistance=2.5, labelangle=-45, headlabel="False"] ;
9 [label="X[3] <= 0.5\nentropy = 0.804\nsamples = 860\nvalue = [211, 649]"] ;
8 -> 9 ;
10 [label="entropy = 0.989\nsamples = 48\nvalue = [27, 21]"] ;
9 -> 10 ;
11 [label="entropy = 0.772\nsamples = 812\nvalue = [184, 628]"] ;
9 -> 11 ;
12 [label="X[83] <= 0.5\nentropy = 1.0\nsamples = 81\nvalue = [41, 40]"] ;
8 -> 12 ;
13 [label="entropy = 0.993\nsamples = 69\nvalue = [31, 38]"] ;
12 -> 13 ;
14 [label="entropy = 0.65\nsamples = 12\nvalue = [10, 2]"] ;
12 -> 14 ;
}
